/*
 * Copyright (c) 2026 EdgeImpulse Inc.
 *
 * Generated by Edge Impulse and licensed under the applicable Edge Impulse
 * Terms of Service. Community and Professional Terms of Service
 * (https://edgeimpulse.com/legal/terms-of-service) or Enterprise Terms of
 * Service (https://edgeimpulse.com/legal/enterprise-terms-of-service),
 * according to your product plan subscription (the “License”).
 *
 * This software, documentation and other associated files (collectively referred
 * to as the “Software”) is a single SDK variation generated by the Edge Impulse
 * platform and requires an active paid Edge Impulse subscription to use this
 * Software for any purpose.
 *
 * You may NOT use this Software unless you have an active Edge Impulse subscription
 * that meets the eligibility requirements for the applicable License, subject to
 * your full and continued compliance with the terms and conditions of the License,
 * including without limitation any usage restrictions under the applicable License.
 *
 * If you do not have an active Edge Impulse product plan subscription, or if use
 * of this Software exceeds the usage limitations of your Edge Impulse product plan
 * subscription, you are not permitted to use this Software and must immediately
 * delete and erase all copies of this Software within your control or possession.
 * Edge Impulse reserves all rights and remedies available to enforce its rights.
 *
 * Unless required by applicable law or agreed to in writing, the Software is
 * distributed on an "AS IS" BASIS, WITHOUT WARRANTIES OR CONDITIONS OF ANY KIND,
 * either express or implied. See the License for the specific language governing
 * permissions, disclaimers and limitations under the License.
 */
// Generated on: 30.05.2026 10:05:36

#include <stdio.h>
#include <stdlib.h>
#include "edge-impulse-sdk/tensorflow/lite/c/builtin_op_data.h"
#include "edge-impulse-sdk/tensorflow/lite/c/common.h"
#include "edge-impulse-sdk/tensorflow/lite/micro/micro_mutable_op_resolver.h"
#include "edge-impulse-sdk/porting/ei_classifier_porting.h"

#if EI_CLASSIFIER_PRINT_STATE
#if defined(__cplusplus) && EI_C_LINKAGE == 1
extern "C" {
    extern void ei_printf(const char *format, ...);
}
#else
extern void ei_printf(const char *format, ...);
#endif
#endif

#define STRINGIZE(x) #x
#define STRINGIZE_VALUE_OF(x) STRINGIZE(x)

#if defined (__GNUC__)  /* GNU compiler */
#define ALIGN(X) __attribute__((aligned(X)))
#define DEFINE_SECTION(x) __attribute__((section(x)))
#elif defined (_MSC_VER)
#define ALIGN(X) __declspec(align(X))
#elif defined (__TASKING__) /* TASKING Compiler */
#define ALIGN(X) __align(X)
#define DEFINE_SECTION(x) __attribute__((section(x)))
#elif defined (__ARMCC_VERSION) /* Arm Compiler */
#define ALIGN(X) __ALIGNED(x)
#define DEFINE_SECTION(x) __attribute__((section(x)))
#elif defined (__ICCARM__) /* IAR Compiler */
#define ALIGN(x) __attribute__((aligned(x)))
#define DEFINE_SECTION(x) __attribute__((section(x)))
#elif defined (__clang__) /* LLVM/Clang Compiler */
#define ALIGN(X) __ALIGNED(x)
#define DEFINE_SECTION(x) __attribute__((section(x)))
#endif

#if defined(EI_MODEL_SECTION) && (defined(__GNUC__) || defined(__clang__))
#define MODEL_SECTION(X) __attribute__((section(STRINGIZE_VALUE_OF(X))))
#else
#define MODEL_SECTION(X)
#endif

#ifndef EI_MAX_SCRATCH_BUFFER_COUNT
#ifndef CONFIG_IDF_TARGET_ESP32S3
#define EI_MAX_SCRATCH_BUFFER_COUNT 4
#else
#define EI_MAX_SCRATCH_BUFFER_COUNT 4
#endif // CONFIG_IDF_TARGET_ESP32S3
#endif // EI_MAX_SCRATCH_BUFFER_COUNT

#ifndef EI_MAX_OVERFLOW_BUFFER_COUNT
#define EI_MAX_OVERFLOW_BUFFER_COUNT 10
#endif // EI_MAX_OVERFLOW_BUFFER_COUNT

using namespace tflite;
using namespace tflite::ops;
using namespace tflite::ops::micro;

namespace {

#if defined(EI_CLASSIFIER_ALLOCATION_STATIC_HIMAX) || defined(EI_CLASSIFIER_ALLOCATION_STATIC_HIMAX_GNU)
constexpr int kTensorArenaSize = 1520;
#else
constexpr int kTensorArenaSize = 496;
#endif

#if defined(EI_CLASSIFIER_ALLOCATION_STATIC)
#if defined (EI_TENSOR_ARENA_LOCATION)
uint8_t tensor_arena[kTensorArenaSize] ALIGN(16) DEFINE_SECTION(STRINGIZE_VALUE_OF(EI_TENSOR_ARENA_LOCATION));
#else
uint8_t tensor_arena[kTensorArenaSize] ALIGN(16);
#endif
#elif defined(EI_CLASSIFIER_ALLOCATION_STATIC_HIMAX)
#pragma Bss(".tensor_arena")
uint8_t tensor_arena[kTensorArenaSize] ALIGN(16);
#pragma Bss()
#elif defined(EI_CLASSIFIER_ALLOCATION_STATIC_HIMAX_GNU)
uint8_t tensor_arena[kTensorArenaSize] ALIGN(16) __attribute__((section(".tensor_arena")));
#else
#define EI_CLASSIFIER_ALLOCATION_HEAP 1
uint8_t* tensor_arena = NULL;
#endif

static uint8_t* tensor_boundary;
static uint8_t* current_location;

template <int SZ, class T> struct TfArray {
  int sz; T elem[SZ];
};

enum used_operators_e {
  OP_FULLY_CONNECTED, OP_SOFTMAX,  OP_LAST
};

struct TensorInfo_t { // subset of TfLiteTensor used for initialization from constant memory
  TfLiteAllocationType allocation_type;
  TfLiteType type;
  void* data;
  TfLiteIntArray* dims;
  size_t bytes;
  TfLiteQuantization quantization;
};

typedef struct {
  TfLiteTensor tensor;
  int16_t index;
} TfLiteTensorWithIndex;

typedef struct {
  TfLiteEvalTensor tensor;
  int16_t index;
} TfLiteEvalTensorWithIndex;

TfLiteContext ctx{};
static const int MAX_TFL_TENSOR_COUNT = 4;
static TfLiteTensorWithIndex tflTensors[MAX_TFL_TENSOR_COUNT];
static const int MAX_TFL_EVAL_COUNT = 4;
static TfLiteEvalTensorWithIndex tflEvalTensors[MAX_TFL_EVAL_COUNT];
TfLiteRegistration registrations[OP_LAST];

namespace g0 {
const TfArray<2, int> tensor_dimension0 = { 2, { 1,150 } };
const TfArray<1, float> quant0_scale = { 1, { 2.6823530197143555, } };
const TfArray<1, int> quant0_zero = { 1, { -128 } };
const TfLiteAffineQuantization quant0 = { (TfLiteFloatArray*)&quant0_scale, (TfLiteIntArray*)&quant0_zero, 0 };
const MODEL_SECTION(EI_MODEL_SECTION) ALIGN(8) int32_t tensor_data1[2] = { -1, 1, };
const TfArray<1, int> tensor_dimension1 = { 1, { 2 } };
const TfArray<1, float> quant1_scale = { 1, { 0.021694334223866463, } };
const TfArray<1, int> quant1_zero = { 1, { 0 } };
const TfLiteAffineQuantization quant1 = { (TfLiteFloatArray*)&quant1_scale, (TfLiteIntArray*)&quant1_zero, 0 };
const MODEL_SECTION(EI_MODEL_SECTION) ALIGN(16) int8_t tensor_data2[2*10] = { 
  76, -106, 75, 107, 127, -86, -49, -110, 10, 95, 
  72, 15, -24, -20, -99, 3, -119, 57, -98, 35, 
};
const TfArray<2, int> tensor_dimension2 = { 2, { 2,10 } };
const TfArray<1, float> quant2_scale = { 1, { 0.0053637097589671612, } };
const TfLiteAffineQuantization quant2 = { (TfLiteFloatArray*)&quant2_scale, (TfLiteIntArray*)&g0::quant1_zero, 0 };
const MODEL_SECTION(EI_MODEL_SECTION) ALIGN(16) int32_t tensor_data3[10] = { 0, 0, 0, -2, -2, 3, -2, 2, -2, -3, };
const TfArray<1, int> tensor_dimension3 = { 1, { 10 } };
const TfArray<1, float> quant3_scale = { 1, { 0.01106045488268137, } };
const TfLiteAffineQuantization quant3 = { (TfLiteFloatArray*)&quant3_scale, (TfLiteIntArray*)&g0::quant1_zero, 0 };
const MODEL_SECTION(EI_MODEL_SECTION) ALIGN(16) int8_t tensor_data4[10*20] = { 
  43, -83, -73, 14, 107, 17, 122, -112, -6, -55, 25, 20, 68, 122, 58, -88, 0, -28, -76, 26, 
  -60, -122, 73, 72, 58, -44, -56, -104, -100, 20, -56, -57, 68, 24, 75, 96, -54, 37, -47, -33, 
  -24, -104, -3, 113, -52, -63, -38, 22, -44, -12, 35, 54, -23, -92, -14, -75, 90, -104, -107, -87, 
  63, 14, 102, 4, -71, 80, -63, -49, -28, 79, 100, 53, -75, -99, -1, -48, -27, -56, 113, 90, 
  -49, 64, -103, -46, -91, 73, -39, 29, -96, 66, 90, 62, -18, 54, 30, -102, -51, 109, 78, 62, 
  -94, 76, -75, 55, -33, -123, -7, 84, -127, -50, 91, 63, -58, 66, -29, -72, -41, 65, -73, 4, 
  99, 50, -62, -84, 86, 82, 12, -36, -26, 3, 60, 45, -74, -43, 13, -19, 65, -18, -17, -37, 
  -16, 98, 49, 66, -12, 94, 94, -119, 120, -32, -56, 120, 68, -30, -111, 53, 91, 4, 14, 90, 
  67, 43, 60, 44, 94, 34, -117, -28, -29, 13, 95, 24, -2, -111, -33, 102, -92, 77, -51, -35, 
  47, -77, -16, -2, 86, 106, -21, 12, 85, -100, -72, 53, -77, -57, 64, -20, -19, 96, 3, 83, 
};
const TfArray<2, int> tensor_dimension4 = { 2, { 10,20 } };
const TfArray<1, float> quant4_scale = { 1, { 0.0035695373080670834, } };
const TfLiteAffineQuantization quant4 = { (TfLiteFloatArray*)&quant4_scale, (TfLiteIntArray*)&g0::quant1_zero, 0 };
const MODEL_SECTION(EI_MODEL_SECTION) ALIGN(16) int32_t tensor_data5[20] = { 0, 8, -1, 5, 0, -5, 0, 0, 5, 0, -4, -5, 5, -1, -5, 5, -1, -5, 0, 0, };
const TfArray<1, int> tensor_dimension5 = { 1, { 20 } };
const TfArray<1, float> quant5_scale = { 1, { 0.0056953290477395058, } };
const TfLiteAffineQuantization quant5 = { (TfLiteFloatArray*)&quant5_scale, (TfLiteIntArray*)&g0::quant1_zero, 0 };
const MODEL_SECTION(EI_MODEL_SECTION) ALIGN(16) int8_t tensor_data6[20*150] = { 
  0, -12, -19, 72, 25, 42, 25, -56, 29, -70, -3, 31, -77, -57, -19, 77, 22, 63, -42, -42, 75, -23, 73, 15, -80, 55, -42, -43, -60, -78, 21, 27, 52, -72, -82, 37, -54, 63, -8, -56, 39, -8, -65, -26, -75, 72, -31, 76, -57, -62, -16, -81, 34, -19, -73, 55, 82, 65, 86, 51, 33, -35, 9, -62, -14, -61, 1, 28, 73, -11, 21, -74, -54, -23, -18, -48, 60, 40, -12, 72, 24, -3, -15, 26, -18, 11, -88, -10, -66, -82, 30, -20, -44, 73, -9, -83, 83, 46, -66, -34, -6, -88, 17, 44, -23, -36, -34, 3, -48, -42, 68, 25, 3, 55, -44, 80, -40, 29, -87, 27, 40, 1, 19, 80, -87, -16, 54, 4, 69, -13, -76, -51, 80, 24, 70, -47, 4, 84, -21, 3, 42, -2, -58, -55, -33, -18, -20, 41, -52, -45, 
  -85, -7, 54, 12, -27, -36, 28, 25, 21, 81, -57, 10, 9, 15, 18, -49, 67, 17, 87, -53, -52, -12, 71, -38, 44, 41, -26, 62, -22, -65, -16, 80, 47, 84, 58, -55, -70, -9, -4, -38, -37, -57, 88, 60, 26, -21, 64, -94, 10, 0, -100, -7, 3, -55, -9, -88, -97, 68, 73, -100, -14, 60, -60, -14, -21, -32, 65, -87, 26, -23, 79, -81, 55, -5, -12, 75, -27, -92, -1, 79, -52, -90, -44, -28, 37, 8, -38, -63, 18, -48, 28, 28, 62, 21, 6, 23, -41, -71, -4, -73, 20, 84, 1, -11, -68, 41, 65, -87, -16, -15, -46, -77, 87, 10, -26, 77, 0, 20, -64, -99, 19, -81, -66, -46, 41, -4, -2, 34, -78, 75, -30, -56, 52, -26, 67, 55, -55, -71, -13, 54, -127, 9, -9, -75, 2, 54, 48, 43, -34, -62, 
  55, -13, -76, -63, 36, -47, 52, 72, 82, -9, -67, 13, -65, 41, -52, 59, 27, 50, 0, 36, 85, -83, 47, -70, 9, -24, 82, 42, -46, -70, -46, 56, 43, -64, -18, -30, -76, -7, 49, -68, 43, 44, -83, -16, 30, -18, -47, -71, 30, -24, 43, -21, -17, -3, 44, -73, 8, 10, 9, -25, 79, -31, -15, 13, -25, 49, 17, -50, -28, -31, -6, -87, 5, 72, -16, -76, -75, 46, -44, -54, 35, -49, 30, -4, 6, 13, -23, -3, -70, -2, -63, 71, 18, -32, 85, 58, 26, 42, 29, 24, -85, -76, -46, -63, 38, -36, 76, 61, 6, -16, -43, 44, 5, -71, -56, -74, 40, 87, -21, 36, -46, 69, 86, -86, 75, 72, 22, 56, -74, -6, 48, -55, 15, 42, 42, 41, -44, 63, 50, 29, -14, 75, 78, 77, -72, 0, -74, 7, -33, 10, 
  -72, 44, -60, 52, -8, 15, -9, 83, 30, -74, 70, 51, 40, 53, 11, -21, -68, -62, 28, 54, -84, 32, -58, -48, 52, 43, -71, 50, 71, 54, -41, 35, 52, -40, 51, -11, 85, -85, -3, 60, -73, 44, 3, 66, 64, -67, -5, -79, 53, 40, -74, -2, -18, -106, 22, -68, -89, -87, -36, -34, 79, 29, 64, 62, -58, -101, 48, -76, -71, -80, 50, -71, -46, -63, 1, 31, -22, 58, 34, 85, -12, 54, 61, -49, -19, -71, -25, -34, 53, -57, 35, 30, -88, 11, 72, -53, -53, -17, 52, -19, -28, -10, 71, -51, -52, -5, 11, -47, 15, 24, -89, 12, -3, 51, 4, 78, -97, 4, 61, -33, -83, 70, -25, 27, -74, 3, -2, -53, 15, 23, -34, -104, -25, 75, -31, -43, -59, -13, 7, 59, 23, 55, 21, -58, 14, 19, -43, -59, -30, -75, 
  71, 18, 14, -55, -70, -66, 73, -21, -41, 51, -26, 16, -55, -39, -61, 47, 51, 57, -8, -20, -10, 80, -18, -14, -28, 4, 63, 59, -80, -70, 40, -57, 77, -63, -28, -43, -27, -81, 18, 50, 8, 26, -77, -32, 49, -55, 64, 52, -17, 59, 55, 63, -68, -23, -24, 84, 56, 67, 76, 51, -75, -70, 79, 80, 4, 49, -38, 86, -86, -21, -76, 23, 60, 30, 36, 40, -29, -24, -43, -35, 65, -84, 43, -62, 29, -50, 18, -63, 58, -31, -33, 3, 22, 57, 25, 2, 16, -19, -65, -68, -19, -77, 20, -26, 79, -46, -83, -22, -59, 28, -57, -5, -52, -4, 32, -8, -34, -60, -47, -11, 78, -25, -51, -11, -75, 5, 82, -68, -40, 35, -28, -15, 34, -16, -20, -20, 44, 45, -81, 62, 26, 13, 55, 9, 58, -84, 67, 15, -75, -77, 
  -26, 67, 28, -4, -29, -34, 9, 88, -21, 19, -81, -13, -85, 42, 42, 0, -78, 44, -26, 8, -42, -69, -7, -29, 65, -22, 32, -11, -40, 89, -15, -8, 88, -53, 21, -60, 60, -50, 55, 76, 61, 43, -62, -23, 34, -87, -65, -36, -4, 56, 93, -14, 29, -18, 37, 52, 43, -10, 50, 29, 22, -83, 76, -69, -24, 22, -31, 70, 91, 39, 82, -15, 58, -64, -69, -58, -10, 16, 53, 0, -39, 34, -44, 91, -5, -67, 43, -6, 86, 6, 11, 6, -37, 67, 3, 12, -10, 28, 14, 52, -12, 28, 70, -51, 29, 14, 85, -35, 31, 48, 6, -7, 26, 63, 63, 17, 60, -69, 23, -27, -84, 48, -40, 13, 4, 81, -14, -33, -37, -74, 7, 54, -54, -30, 31, 76, 39, -37, 68, 81, 78, 1, 1, -25, 14, -49, 84, 80, 77, -32, 
  41, -26, -32, -49, -55, -86, -30, 61, -31, 6, -5, -7, 0, 50, 34, -15, -36, -45, 85, 67, -42, 16, -40, 56, -36, -10, 87, -74, 70, 21, 57, -82, 1, -12, -69, 50, -81, 35, -71, 86, -11, 18, -8, 3, -44, -76, 83, -48, -10, -20, -58, 71, -77, 53, 27, -11, 7, 71, 47, -32, -56, 8, 62, -54, 41, 22, -80, 54, -66, -49, 13, 77, -27, 39, 25, 51, 40, 68, 37, -40, 65, 53, 3, 25, -51, -26, 53, 21, -42, -37, -64, 54, -36, 79, -29, -85, -42, -54, -78, -9, -53, -51, 3, -26, 84, -15, -13, -60, -48, -5, -5, 46, 57, -87, 20, -21, 48, -36, -75, -31, -47, 17, -73, -1, -34, -71, -9, 37, -25, -75, 36, -83, -9, 40, 58, 68, -72, 38, 60, 86, 33, 50, -36, -89, -66, 8, 60, -78, 67, 55, 
  64, -86, 25, 74, 76, 25, 24, 35, -28, 73, -19, 84, -31, 34, -57, -84, -29, -47, -59, 81, 72, -56, -47, -2, -20, 84, -25, 23, -83, -13, 19, 81, 18, -77, -32, -82, -16, 24, 59, -30, -16, 25, 88, 84, 30, -9, 18, -74, -52, 43, -60, -24, -17, 13, -28, -55, -76, 60, 57, -87, -59, -29, 44, -64, 46, 24, 21, -36, -41, 88, -53, 15, -17, 35, -2, 15, -33, 50, -46, 42, 87, -87, 52, -4, 22, -83, 36, 38, 58, -31, -22, -75, 12, -50, -72, -38, -30, -75, 4, 80, -28, 51, -4, -77, -12, -31, -40, -77, 81, -32, -50, -72, 15, 39, 74, -36, 66, -15, -34, 34, -29, 23, -9, -73, 33, 32, -59, -73, -17, -15, 51, -6, -19, 14, -59, 52, -18, -20, 6, -8, -12, 50, 50, 70, 32, 54, -4, -65, 57, 17, 
  48, 83, 40, -15, -77, 20, -11, -53, -20, -14, 5, 35, 49, -33, -11, -39, 35, -60, 85, 17, 55, 56, 77, 21, 53, 54, 54, -9, 71, -79, 47, -84, -33, -2, -73, -45, -77, 72, -76, 9, -45, -54, -78, -35, -95, 26, -32, -33, -45, 25, -97, -85, 86, -72, 46, 41, -2, 40, -10, -55, 56, -21, 56, -35, 4, -105, 74, 62, 39, -45, -38, -50, 16, -71, -45, -77, -64, -68, -47, 74, -71, -53, -68, -62, 71, 19, -21, 31, 50, 27, -1, -79, -95, -20, 67, -25, 79, 21, 24, -47, -61, -55, -39, 39, 0, 62, -22, -12, 21, -8, -54, 57, 15, 28, 67, 81, 12, -55, 72, -49, 59, 69, -23, -27, 45, -81, 15, 85, -84, 62, -80, 44, -90, -26, -74, -2, -64, 48, 21, 73, 45, -8, 59, -71, -72, 11, 30, -60, -80, -61, 
  -73, 39, -75, -6, -51, 52, -80, -1, -48, -88, -75, -60, -88, -23, -56, 69, -10, 51, 62, -56, -18, 55, 17, 82, 88, 59, 5, 26, -2, 40, -39, -25, -64, -3, 62, 27, 59, 66, -13, 13, 20, 37, -48, 21, -37, -88, 57, 36, 75, -68, 45, 83, -85, -83, -52, 16, 49, 9, -80, 27, -78, -48, -61, 66, 1, -21, -82, -25, -60, 37, -55, 58, 76, 2, -16, -66, 81, -25, -87, 60, 44, 84, -75, -50, -62, 67, -60, -47, 42, 16, 70, 34, -25, -11, 10, 80, -2, -82, -67, -39, 55, -68, -76, -32, 12, -4, -88, -40, 35, 32, 42, -48, -37, -39, 75, 58, 69, 48, 59, 43, 69, -86, -43, 75, -48, 40, 62, -29, -44, 35, -40, -51, -32, -25, -74, 40, 77, -2, 14, -87, 67, -60, 32, -4, 9, 32, 80, -8, -87, -9, 
  84, 22, 52, -84, -68, -2, 51, 15, 7, 29, -65, 44, 25, -67, 66, -49, 0, 18, 32, 20, -50, 44, -79, 83, 73, -14, -34, -26, 64, 62, -82, -68, -50, -18, 89, 97, -24, -67, -51, 24, 35, -2, 3, -26, -11, 60, 7, -61, 50, 34, -11, -56, -17, 11, 61, 78, -44, -36, 20, 8, 22, 30, 74, 59, 22, -64, -78, 39, 54, 25, 69, 33, -21, -36, 16, 76, 24, -27, 37, 87, -9, -59, 26, -38, -35, 59, -14, 23, -33, -25, -2, 82, 56, -46, -13, 24, -48, 31, -63, 40, 73, 56, 40, 36, 52, -41, 2, -57, 67, 7, -7, 4, 29, 54, -83, 12, -9, 74, -32, -25, -41, -73, -27, -65, 73, 42, -63, 20, 47, -74, 57, -13, -65, -82, 39, 26, -10, -50, 80, 53, -8, -62, -39, 46, -14, -83, -2, -33, 36, -27, 
  -13, 30, 90, -27, -67, -45, 87, -34, 76, -21, 76, 98, 57, 80, -9, 41, -36, -13, 80, 3, 4, -17, 85, 17, 27, 35, 62, 43, 89, 35, -6, -18, 22, -36, 24, -1, -61, 23, 40, 46, 39, 71, 74, -13, -29, -29, 20, 62, -77, -8, -51, 58, 27, 45, 79, 50, 56, -15, 10, -50, 65, 47, 14, -25, 62, 73, 58, -22, -4, -20, -68, 25, -51, -53, 87, 22, 38, 98, 36, 14, 66, 81, -74, -28, -80, -79, -41, 41, -11, 75, 43, -70, -71, -66, 16, 43, 39, 57, -1, -26, -12, -4, 65, 61, 62, 33, 8, 107, 0, -75, -5, 19, 35, 38, -78, -57, -65, 6, 55, 55, 88, 78, 31, -17, -6, -24, -47, -66, 92, 69, -53, 74, 37, -18, -66, 17, -65, 95, -43, 50, 20, 13, -13, 59, 58, -79, 8, -36, -60, -37, 
  -40, -85, -12, -28, 52, -110, -53, -87, -84, 42, -22, -100, 20, 45, -56, 63, 10, -49, 72, -25, 16, 46, -56, 40, 43, -29, -2, -44, 72, -26, -39, 19, -105, 78, 53, 34, 70, -59, -93, -54, -12, 4, -69, -44, -106, -34, 80, 27, -12, 87, 42, -77, -88, -1, -57, -87, -73, 25, -17, 16, -29, -64, -85, 58, 14, 0, 57, 32, -8, 60, -1, -65, 41, 56, 7, -85, -35, 38, -74, -76, -14, 36, 74, 35, 79, 66, -97, -51, 3, 33, -63, 79, 2, 15, -60, -98, 31, 9, 41, -19, -60, 49, 42, 28, -12, -74, -6, 47, 43, 13, -19, -30, 3, -55, -61, 13, -59, -28, 77, 19, 47, -9, 3, -48, 28, 35, -88, 47, -54, 69, -6, 23, 68, -7, 14, 81, 46, -34, 67, 87, 26, 15, 69, -46, -35, -26, -93, 61, -29, -96, 
  18, -91, -50, -7, 76, 83, -76, 79, -14, 18, 14, 21, 75, 21, -19, -65, -91, -17, -74, -35, -70, -72, -7, -31, -40, -90, -62, 73, -17, 4, 24, -88, -68, -87, -15, 19, 37, -9, 68, -29, 79, 40, 70, -66, 71, -46, -7, 47, 85, 51, 26, 38, -67, -45, 77, -37, 13, 58, 42, -18, -2, -33, -17, -70, 55, 65, 69, 67, 15, 81, -76, -19, 53, -19, 39, -66, -50, -43, 39, -53, -38, 37, -28, -32, 45, 11, 61, 72, -7, -89, 3, 16, -62, 45, -86, -65, -41, 80, -2, -47, 13, 74, 19, -67, -56, 35, -2, -11, -27, 35, 53, -82, -56, 24, -60, 44, 46, -52, 48, -79, -5, -35, -42, -31, 77, 13, -73, 65, 29, 72, -75, -71, 21, -5, -75, -83, 36, -35, -44, 69, 72, -15, 46, -87, -28, 57, 37, -50, 45, 79, 
  79, -74, -34, 15, 6, -14, -40, 30, 59, 28, 85, -73, -75, 85, -64, -33, -78, 40, 49, -69, 100, 86, -44, 74, -83, -52, -6, -72, 69, -20, 89, -47, -15, 53, -13, -38, -71, 20, 84, -83, -88, 79, -87, 56, 14, 52, -33, -34, -87, -38, -8, 37, 28, 5, -68, -57, 95, -21, 75, -28, 4, 36, -32, 79, 12, 98, 76, 54, 3, 46, 8, -32, 77, -37, 84, 40, -38, 41, -6, 6, 72, 10, -61, -21, 18, -71, 86, 7, -74, 35, -40, 26, 0, 49, -76, 13, 68, 67, 83, 86, -82, 79, -59, 63, -63, -31, 53, -57, -34, -52, -23, -2, 84, 54, -79, 53, 94, -77, 66, 99, -44, -12, 15, -53, -62, -75, -6, 82, 85, -55, -30, -38, -2, -2, 73, 44, 80, 72, -74, 70, -1, 35, -28, -23, 62, 59, 39, -55, 50, 70, 
  0, 73, -78, -83, -84, -11, -11, 13, 19, 29, -7, 15, -51, 40, 15, 66, 13, 20, 29, 50, -106, 70, -73, 24, 19, -1, -47, -33, -18, -51, 21, -32, -52, 45, -8, -2, -1, -83, 4, 78, 49, -51, 27, -64, 43, -53, -80, -45, -63, 59, 20, -6, 61, 58, 36, -51, 63, 37, -64, 51, 3, -55, -2, -38, 13, 14, 12, -53, -8, 56, -76, 47, 72, 75, 18, 64, -37, -9, 76, 33, -90, -54, 12, 61, 85, 67, -9, 45, 50, 67, -3, 86, 2, 55, 84, 43, -73, 43, 31, 42, 67, 74, 84, -27, 50, -56, 13, 12, 86, -50, 11, -76, -86, 4, 50, -56, -47, -76, -3, -36, -49, 17, -39, -32, 32, -21, -52, -42, -31, -70, -17, -51, 16, 73, -71, -35, -49, -57, 10, 12, -76, 23, -37, -29, 70, 14, 77, 10, -7, -77, 
  -1, -58, -36, -8, 69, -23, -31, -65, 30, -79, -78, -29, 19, 41, -32, 30, -71, -46, 36, -30, -75, -52, 31, -39, 35, -31, -17, 65, -63, 61, 30, -2, 66, -54, -28, -48, 24, -77, -41, 1, -2, -17, 13, 62, -12, -72, 67, -82, -8, -37, 5, -13, -18, -66, -14, -85, -15, -20, 55, -63, -59, 74, -53, 3, -64, 38, 0, -35, -4, 82, -74, -20, -47, 74, 64, 44, -43, 22, -54, 15, 17, 76, -90, -31, -8, 57, 2, -56, 81, -23, 9, 83, 80, 13, 12, -44, 6, -29, 76, -43, -15, -14, -17, -14, 76, 61, 40, 81, -17, -53, 47, 20, 59, -84, -82, 28, -27, 76, -52, -76, 41, -14, -55, -12, 80, 15, -11, -79, 77, 76, -18, 69, -15, 18, -62, 0, 57, -64, 80, -80, 70, -23, 48, -37, -47, 27, 81, 52, -5, 12, 
  -17, 45, 91, 62, 65, 9, -34, 74, 43, -11, -30, 104, -29, 63, -36, -28, -60, 42, 82, -47, 73, -34, -64, 101, -46, -67, -36, 30, -5, -49, -10, -65, 24, 22, 9, 107, 84, -46, 81, -74, -82, -16, 86, -26, 45, -59, 9, 107, -68, 43, -24, -52, 81, 64, 24, -65, 79, -75, -19, -19, 26, -68, 61, 83, -18, 69, -9, 2, 44, -24, 68, -7, 54, 80, 59, 20, -71, -35, 62, -68, -42, -78, -78, 37, 48, 81, -17, 20, 19, 60, -1, 84, -65, -45, 63, 65, 38, -31, 94, -82, 76, 37, 6, -54, -41, -88, -71, 106, 24, -87, -64, -40, 68, 15, -58, 26, 78, 85, -44, 15, -51, 80, 51, 78, 2, 37, 41, 74, 88, 81, 46, 63, -52, 69, 19, -19, 83, 83, 19, -18, -57, -78, -80, 85, 46, -1, 32, 36, 75, 4, 
  -74, -22, 47, -86, 42, 7, -57, -8, -2, -31, -81, -34, -75, -62, -66, -46, 6, -52, -48, 34, -44, 73, -48, 69, -38, -77, -3, -25, -78, -61, 41, -38, -56, -79, 87, 69, 24, -59, -68, -29, -64, 18, -53, 45, 2, -14, 88, 20, -69, -81, 5, -75, 39, -50, 56, -62, -57, -55, -24, 63, -28, -46, -58, 69, 43, -46, 77, -71, 5, 77, 55, 48, 66, -40, -83, 27, 79, 16, -26, 30, 25, 37, 76, -3, 42, 16, 74, 9, -5, -70, -84, 69, 56, -28, -63, -64, 48, 20, 83, -54, -88, 87, 21, 8, -44, 2, -45, -63, 5, 49, -60, 10, -87, -47, -49, -66, 39, 36, -76, -78, 76, -49, -24, 16, 25, 84, -19, -36, 5, 7, -78, -40, 3, -5, -13, -48, 23, 85, -37, 26, 62, -27, -12, -36, 73, 65, 22, 28, -15, -22, 
  -3, 66, 5, -43, -15, -29, 26, -12, 63, 60, -71, 70, 61, -1, -1, -36, -2, -74, -47, 24, -33, -81, 69, -69, -6, 2, -57, -37, 31, 70, -61, 13, 74, -55, 8, 30, -80, 19, 5, -11, -58, -61, 23, 49, 1, -71, -82, 24, -8, 3, 22, 40, -74, 30, 41, -45, 47, -73, -59, 73, -68, 59, -64, 31, -66, -10, -14, -60, -64, -52, -84, 58, -26, -12, -19, 30, -73, -86, -77, -39, 68, -6, -3, -75, -18, 32, 77, -9, 25, 1, -82, 14, -59, -19, 26, -73, -58, -62, 88, -52, -27, 67, 60, -67, -16, 55, -83, -62, -6, 52, 88, 66, -74, -55, 39, 11, -8, -50, -40, -6, 87, 12, 38, -44, 25, 57, -79, 0, -45, 1, -63, 1, 70, 49, 10, 86, 41, 69, -47, -35, 34, -57, 31, 23, 1, 68, -62, 68, -19, 33, 
};
const TfArray<2, int> tensor_dimension6 = { 2, { 20,150 } };
const TfArray<1, float> quant6_scale = { 1, { 0.0021232585422694683, } };
const TfLiteAffineQuantization quant6 = { (TfLiteFloatArray*)&quant6_scale, (TfLiteIntArray*)&g0::quant1_zero, 0 };
const TfArray<2, int> tensor_dimension7 = { 2, { 1,20 } };
const TfArray<1, float> quant7_scale = { 1, { 3.0985682010650635, } };
const TfLiteAffineQuantization quant7 = { (TfLiteFloatArray*)&quant7_scale, (TfLiteIntArray*)&g0::quant0_zero, 0 };
const TfArray<2, int> tensor_dimension8 = { 2, { 1,10 } };
const TfArray<1, float> quant8_scale = { 1, { 4.0446510314941406, } };
const TfLiteAffineQuantization quant8 = { (TfLiteFloatArray*)&quant8_scale, (TfLiteIntArray*)&g0::quant0_zero, 0 };
const TfArray<2, int> tensor_dimension9 = { 2, { 1,2 } };
const TfArray<1, float> quant9_scale = { 1, { 1.8324953317642212, } };
const TfArray<1, int> quant9_zero = { 1, { 89 } };
const TfLiteAffineQuantization quant9 = { (TfLiteFloatArray*)&quant9_scale, (TfLiteIntArray*)&quant9_zero, 0 };
const TfArray<1, float> quant10_scale = { 1, { 0.00390625, } };
const TfLiteAffineQuantization quant10 = { (TfLiteFloatArray*)&quant10_scale, (TfLiteIntArray*)&g0::quant0_zero, 0 };
const TfLiteFullyConnectedParams opdata0 = { kTfLiteActRelu, kTfLiteFullyConnectedWeightsFormatDefault, false, false };
const TfArray<3, int> inputs0 = { 3, { 0,6,5 } };
const TfArray<1, int> outputs0 = { 1, { 7 } };
const TfLiteFullyConnectedParams opdata1 = { kTfLiteActRelu, kTfLiteFullyConnectedWeightsFormatDefault, false, false };
const TfArray<3, int> inputs1 = { 3, { 7,4,3 } };
const TfArray<1, int> outputs1 = { 1, { 8 } };
const TfLiteFullyConnectedParams opdata2 = { kTfLiteActNone, kTfLiteFullyConnectedWeightsFormatDefault, false, false };
const TfArray<3, int> inputs2 = { 3, { 8,2,1 } };
const TfArray<1, int> outputs2 = { 1, { 9 } };
const TfLiteSoftmaxParams opdata3 = { 1 };
const TfArray<1, int> inputs3 = { 1, { 9 } };
const TfArray<1, int> outputs3 = { 1, { 10 } };
};

TensorInfo_t tensorData[] = {
{ kTfLiteArenaRw, kTfLiteInt8, (int32_t*)(tensor_arena + 0), (TfLiteIntArray*)&g0::tensor_dimension0, 150, {kTfLiteAffineQuantization, const_cast<void*>(static_cast<const void*>(&g0::quant0))}, },
{ kTfLiteMmapRo, kTfLiteInt32, (int32_t*)g0::tensor_data1, (TfLiteIntArray*)&g0::tensor_dimension1, 8, {kTfLiteAffineQuantization, const_cast<void*>(static_cast<const void*>(&g0::quant1))}, },
{ kTfLiteMmapRo, kTfLiteInt8, (int32_t*)g0::tensor_data2, (TfLiteIntArray*)&g0::tensor_dimension2, 20, {kTfLiteAffineQuantization, const_cast<void*>(static_cast<const void*>(&g0::quant2))}, },
{ kTfLiteMmapRo, kTfLiteInt32, (int32_t*)g0::tensor_data3, (TfLiteIntArray*)&g0::tensor_dimension3, 40, {kTfLiteAffineQuantization, const_cast<void*>(static_cast<const void*>(&g0::quant3))}, },
{ kTfLiteMmapRo, kTfLiteInt8, (int32_t*)g0::tensor_data4, (TfLiteIntArray*)&g0::tensor_dimension4, 200, {kTfLiteAffineQuantization, const_cast<void*>(static_cast<const void*>(&g0::quant4))}, },
{ kTfLiteMmapRo, kTfLiteInt32, (int32_t*)g0::tensor_data5, (TfLiteIntArray*)&g0::tensor_dimension5, 80, {kTfLiteAffineQuantization, const_cast<void*>(static_cast<const void*>(&g0::quant5))}, },
{ kTfLiteMmapRo, kTfLiteInt8, (int32_t*)g0::tensor_data6, (TfLiteIntArray*)&g0::tensor_dimension6, 3000, {kTfLiteAffineQuantization, const_cast<void*>(static_cast<const void*>(&g0::quant6))}, },
{ kTfLiteArenaRw, kTfLiteInt8, (int32_t*)(tensor_arena + 160), (TfLiteIntArray*)&g0::tensor_dimension7, 20, {kTfLiteAffineQuantization, const_cast<void*>(static_cast<const void*>(&g0::quant7))}, },
{ kTfLiteArenaRw, kTfLiteInt8, (int32_t*)(tensor_arena + 0), (TfLiteIntArray*)&g0::tensor_dimension8, 10, {kTfLiteAffineQuantization, const_cast<void*>(static_cast<const void*>(&g0::quant8))}, },
{ kTfLiteArenaRw, kTfLiteInt8, (int32_t*)(tensor_arena + 16), (TfLiteIntArray*)&g0::tensor_dimension9, 2, {kTfLiteAffineQuantization, const_cast<void*>(static_cast<const void*>(&g0::quant9))}, },
{ kTfLiteArenaRw, kTfLiteInt8, (int32_t*)(tensor_arena + 0), (TfLiteIntArray*)&g0::tensor_dimension9, 2, {kTfLiteAffineQuantization, const_cast<void*>(static_cast<const void*>(&g0::quant10))}, },
};

#ifndef TF_LITE_STATIC_MEMORY
TfLiteNode tflNodes[4] = {
{ (TfLiteIntArray*)&g0::inputs0, (TfLiteIntArray*)&g0::outputs0, (TfLiteIntArray*)&g0::inputs0, nullptr, nullptr, const_cast<void*>(static_cast<const void*>(&g0::opdata0)), nullptr, 0, },
{ (TfLiteIntArray*)&g0::inputs1, (TfLiteIntArray*)&g0::outputs1, (TfLiteIntArray*)&g0::inputs1, nullptr, nullptr, const_cast<void*>(static_cast<const void*>(&g0::opdata1)), nullptr, 0, },
{ (TfLiteIntArray*)&g0::inputs2, (TfLiteIntArray*)&g0::outputs2, (TfLiteIntArray*)&g0::inputs2, nullptr, nullptr, const_cast<void*>(static_cast<const void*>(&g0::opdata2)), nullptr, 0, },
{ (TfLiteIntArray*)&g0::inputs3, (TfLiteIntArray*)&g0::outputs3, (TfLiteIntArray*)&g0::inputs3, nullptr, nullptr, const_cast<void*>(static_cast<const void*>(&g0::opdata3)), nullptr, 0, },
};
#else
TfLiteNode tflNodes[4] = {
{ (TfLiteIntArray*)&g0::inputs0, (TfLiteIntArray*)&g0::outputs0, (TfLiteIntArray*)&g0::inputs0, nullptr, const_cast<void*>(static_cast<const void*>(&g0::opdata0)), nullptr, 0, },
{ (TfLiteIntArray*)&g0::inputs1, (TfLiteIntArray*)&g0::outputs1, (TfLiteIntArray*)&g0::inputs1, nullptr, const_cast<void*>(static_cast<const void*>(&g0::opdata1)), nullptr, 0, },
{ (TfLiteIntArray*)&g0::inputs2, (TfLiteIntArray*)&g0::outputs2, (TfLiteIntArray*)&g0::inputs2, nullptr, const_cast<void*>(static_cast<const void*>(&g0::opdata2)), nullptr, 0, },
{ (TfLiteIntArray*)&g0::inputs3, (TfLiteIntArray*)&g0::outputs3, (TfLiteIntArray*)&g0::inputs3, nullptr, const_cast<void*>(static_cast<const void*>(&g0::opdata3)), nullptr, 0, },
};
#endif

used_operators_e used_ops[] =
{OP_FULLY_CONNECTED, OP_FULLY_CONNECTED, OP_FULLY_CONNECTED, OP_SOFTMAX, };


// Indices into tflTensors and tflNodes for subgraphs
const size_t tflTensors_subgraph_index[] = {0, 11, };
const size_t tflNodes_subgraph_index[] = {0, 4, };

// Input/output tensors
static const int in_tensor_indices[] = {
  0, 
};

static const int out_tensor_indices[] = {
  10, 
};


size_t current_subgraph_index = 0;

static void init_tflite_tensor(size_t i, TfLiteTensor *tensor) {
  tensor->type = tensorData[i].type;
  tensor->is_variable = false;

#if defined(EI_CLASSIFIER_ALLOCATION_HEAP)
  tensor->allocation_type = tensorData[i].allocation_type;
#else
  tensor->allocation_type = (tensor_arena <= tensorData[i].data && tensorData[i].data < tensor_arena + kTensorArenaSize) ? kTfLiteArenaRw : kTfLiteMmapRo;
#endif
  tensor->bytes = tensorData[i].bytes;
  tensor->dims = tensorData[i].dims;

#if defined(EI_CLASSIFIER_ALLOCATION_HEAP)
  if(tensor->allocation_type == kTfLiteArenaRw){
    uint8_t* start = (uint8_t*) ((uintptr_t)tensorData[i].data + (uintptr_t) tensor_arena);

    tensor->data.data =  start;
  }
  else {
      tensor->data.data = tensorData[i].data;
  }
#else
  tensor->data.data = tensorData[i].data;
#endif // EI_CLASSIFIER_ALLOCATION_HEAP
  tensor->quantization = tensorData[i].quantization;
  if (tensor->quantization.type == kTfLiteAffineQuantization) {
    TfLiteAffineQuantization const* quant = ((TfLiteAffineQuantization const*)(tensorData[i].quantization.params));
    tensor->params.scale = quant->scale->data[0];
    tensor->params.zero_point = quant->zero_point->data[0];
  }

}

static void init_tflite_eval_tensor(int i, TfLiteEvalTensor *tensor) {

  tensor->type = tensorData[i].type;

  tensor->dims = tensorData[i].dims;

#if defined(EI_CLASSIFIER_ALLOCATION_HEAP)
  auto allocation_type = tensorData[i].allocation_type;
  if(allocation_type == kTfLiteArenaRw) {
    uint8_t* start = (uint8_t*) ((uintptr_t)tensorData[i].data + (uintptr_t) tensor_arena);

    tensor->data.data =  start;
  }
  else {
    tensor->data.data = tensorData[i].data;
  }
#else
  tensor->data.data = tensorData[i].data;
#endif // EI_CLASSIFIER_ALLOCATION_HEAP
}

static void* overflow_buffers[EI_MAX_OVERFLOW_BUFFER_COUNT];
static size_t overflow_buffers_ix = 0;
static void * AllocatePersistentBufferImpl(struct TfLiteContext* ctx,
                                       size_t bytes) {
  void *ptr;
  uint32_t align_bytes = (bytes % 16) ? 16 - (bytes % 16) : 0;

  if (current_location - (bytes + align_bytes) < tensor_boundary) {
    if (overflow_buffers_ix > EI_MAX_OVERFLOW_BUFFER_COUNT - 1) {
      ei_printf("ERR: Failed to allocate persistent buffer of size %d, does not fit in tensor arena and reached EI_MAX_OVERFLOW_BUFFER_COUNT\n",
        (int)bytes);
      return NULL;
    }

    // OK, this will look super weird, but.... we have CMSIS-NN buffers which
    // we cannot calculate beforehand easily.
    ptr = ei_calloc(bytes, 1);
    if (ptr == NULL) {
      ei_printf("ERR: Failed to allocate persistent buffer of size %d\n", (int)bytes);
      return NULL;
    }
    overflow_buffers[overflow_buffers_ix++] = ptr;
    return ptr;
  }

  current_location -= bytes;

  // align to the left aligned boundary of 16 bytes
  current_location -= 15; // for alignment
  current_location += 16 - ((uintptr_t)(current_location) & 15);

  ptr = current_location;
  memset(ptr, 0, bytes);

  return ptr;
}

typedef struct {
  size_t bytes;
  void *ptr;
} scratch_buffer_t;

static scratch_buffer_t scratch_buffers[EI_MAX_SCRATCH_BUFFER_COUNT];
static size_t scratch_buffers_ix = 0;

static TfLiteStatus RequestScratchBufferInArenaImpl(struct TfLiteContext* ctx, size_t bytes,
                                                int* buffer_idx) {
  if (scratch_buffers_ix > EI_MAX_SCRATCH_BUFFER_COUNT - 1) {
    ei_printf("ERR: Failed to allocate scratch buffer of size %d, reached EI_MAX_SCRATCH_BUFFER_COUNT\n",
      (int)bytes);
    return kTfLiteError;
  }

  scratch_buffer_t b;
  b.bytes = bytes;

  b.ptr = AllocatePersistentBufferImpl(ctx, b.bytes);
  if (!b.ptr) {
    ei_printf("ERR: Failed to allocate scratch buffer of size %d\n",
      (int)bytes);
    return kTfLiteError;
  }

  scratch_buffers[scratch_buffers_ix] = b;
  *buffer_idx = scratch_buffers_ix;

  scratch_buffers_ix++;

  return kTfLiteOk;
}

static void* GetScratchBufferImpl(struct TfLiteContext* ctx, int buffer_idx) {
  if (buffer_idx > (int)scratch_buffers_ix) {
    return NULL;
  }
  return scratch_buffers[buffer_idx].ptr;
}

static const uint16_t TENSOR_IX_UNUSED = 0x7FFF;

static void ResetTensors() {
  for (size_t ix = 0; ix < MAX_TFL_TENSOR_COUNT; ix++) {
    tflTensors[ix].index = TENSOR_IX_UNUSED;
  }
  for (size_t ix = 0; ix < MAX_TFL_EVAL_COUNT; ix++) {
    tflEvalTensors[ix].index = TENSOR_IX_UNUSED;
  }
}

static TfLiteTensor* GetTensorImpl(const struct TfLiteContext* context,
                               int tensor_idx) {

  tensor_idx = tflTensors_subgraph_index[current_subgraph_index] + tensor_idx;

  for (size_t ix = 0; ix < MAX_TFL_TENSOR_COUNT; ix++) {
    // already used? OK!
    if (tflTensors[ix].index == tensor_idx) {
      return &tflTensors[ix].tensor;
    }
    // passed all the ones we've used, so end of the list?
    if (tflTensors[ix].index == TENSOR_IX_UNUSED) {
      // init the tensor
      init_tflite_tensor(tensor_idx, &tflTensors[ix].tensor);
      tflTensors[ix].index = tensor_idx;
      return &tflTensors[ix].tensor;
    }
  }

  ei_printf("ERR: GetTensor called beyond MAX_TFL_TENSOR_COUNT (%d)\n", MAX_TFL_TENSOR_COUNT);
  return nullptr;
}

static TfLiteEvalTensor* GetEvalTensorImpl(const struct TfLiteContext* context,
                                       int tensor_idx) {

  tensor_idx = tflTensors_subgraph_index[current_subgraph_index] + tensor_idx;

  for (size_t ix = 0; ix < MAX_TFL_EVAL_COUNT; ix++) {
    // already used? OK!
    if (tflEvalTensors[ix].index == tensor_idx) {
      return &tflEvalTensors[ix].tensor;
    }
    // passed all the ones we've used, so end of the list?
    if (tflEvalTensors[ix].index == TENSOR_IX_UNUSED) {
      // init the tensor
      init_tflite_eval_tensor(tensor_idx, &tflEvalTensors[ix].tensor);
      tflEvalTensors[ix].index = tensor_idx;
      return &tflEvalTensors[ix].tensor;
    }
  }

  ei_printf("ERR: GetTensor called beyond MAX_TFL_EVAL_COUNT (%d)\n", (int)MAX_TFL_EVAL_COUNT);
  return nullptr;
}

class EonMicroContext : public MicroContext {
 public:
 
  EonMicroContext(): MicroContext(nullptr, nullptr, nullptr) { }

  void* AllocatePersistentBuffer(size_t bytes) {
    return AllocatePersistentBufferImpl(nullptr, bytes);
  }

  TfLiteStatus RequestScratchBufferInArena(size_t bytes,
                                           int* buffer_index) {
  return RequestScratchBufferInArenaImpl(nullptr, bytes, buffer_index);
  }

  void* GetScratchBuffer(int buffer_index) {
    return GetScratchBufferImpl(nullptr, buffer_index);
  }
 
  TfLiteTensor* AllocateTempTfLiteTensor(int tensor_index) {
    return GetTensorImpl(nullptr, tensor_index);
  }

  void DeallocateTempTfLiteTensor(TfLiteTensor* tensor) {
    return;
  }

  bool IsAllTempTfLiteTensorDeallocated() {
    return true;
  }

  TfLiteEvalTensor* GetEvalTensor(int tensor_index) {
    return GetEvalTensorImpl(nullptr, tensor_index);
  }

};


} // namespace

TfLiteStatus tflite_learn_1015229_5_init( void*(*alloc_fnc)(size_t,size_t) ) {
#ifdef EI_CLASSIFIER_ALLOCATION_HEAP
  tensor_arena = (uint8_t*) alloc_fnc(16, kTensorArenaSize);
  if (!tensor_arena) {
    ei_printf("ERR: failed to allocate tensor arena\n");
    return kTfLiteError;
  }
#else
  memset(tensor_arena, 0, kTensorArenaSize);
#endif
  tensor_boundary = tensor_arena;
  current_location = tensor_arena + kTensorArenaSize;

  EonMicroContext micro_context_;
  
  // Set microcontext as the context ptr
  ctx.impl_ = static_cast<void*>(&micro_context_);
  // Setup tflitecontext functions
  ctx.AllocatePersistentBuffer = &AllocatePersistentBufferImpl;
  ctx.RequestScratchBufferInArena = &RequestScratchBufferInArenaImpl;
  ctx.GetScratchBuffer = &GetScratchBufferImpl;
  ctx.GetTensor = &GetTensorImpl;
  ctx.GetEvalTensor = &GetEvalTensorImpl;
  ctx.ReportError = &MicroContextReportOpError;

  ctx.tensors_size = 11;
  for (size_t i = 0; i < 11; ++i) {
    TfLiteTensor tensor;
    init_tflite_tensor(i, &tensor);
    if (tensor.allocation_type == kTfLiteArenaRw) {
      auto data_end_ptr = (uint8_t*)tensor.data.data + tensorData[i].bytes;
      if (data_end_ptr > tensor_boundary) {
        tensor_boundary = data_end_ptr;
      }
    }
  }

  if (tensor_boundary > current_location /* end of arena size */) {
    ei_printf("ERR: tensor arena is too small, does not fit model - even without scratch buffers\n");
    return kTfLiteError;
  }

  registrations[OP_FULLY_CONNECTED] = Register_FULLY_CONNECTED();
  registrations[OP_SOFTMAX] = Register_SOFTMAX();

  for (size_t g = 0; g < 1; ++g) {
    current_subgraph_index = g;
    for(size_t i = tflNodes_subgraph_index[g]; i < tflNodes_subgraph_index[g+1]; ++i) {
      if (registrations[used_ops[i]].init) {
        tflNodes[i].user_data = registrations[used_ops[i]].init(&ctx, (const char*)tflNodes[i].builtin_data, 0);
      }
    }
  }
  current_subgraph_index = 0;

  for(size_t g = 0; g < 1; ++g) {
    current_subgraph_index = g;
    for(size_t i = tflNodes_subgraph_index[g]; i < tflNodes_subgraph_index[g+1]; ++i) {
      if (registrations[used_ops[i]].prepare) {
        ResetTensors();
        TfLiteStatus status = registrations[used_ops[i]].prepare(&ctx, &tflNodes[i]);
        if (status != kTfLiteOk) {
          return status;
        }
      }
    }
  }
  current_subgraph_index = 0;

  return kTfLiteOk;
}

TfLiteStatus tflite_learn_1015229_5_input(int index, TfLiteTensor *tensor) {
  init_tflite_tensor(in_tensor_indices[index], tensor);
  return kTfLiteOk;
}

TfLiteStatus tflite_learn_1015229_5_output(int index, TfLiteTensor *tensor) {
  init_tflite_tensor(out_tensor_indices[index], tensor);
  return kTfLiteOk;
}

TfLiteStatus tflite_learn_1015229_5_invoke() {
  for (size_t i = 0; i < 4; ++i) {
    ResetTensors();

    TfLiteStatus status = registrations[used_ops[i]].invoke(&ctx, &tflNodes[i]);

#if EI_CLASSIFIER_PRINT_STATE
    ei_printf("layer %lu\n", i);
    ei_printf("    inputs:\n");
    for (size_t ix = 0; ix < tflNodes[i].inputs->size; ix++) {
      auto d = tensorData[tflNodes[i].inputs->data[ix]];

      size_t data_ptr = (size_t)d.data;

      if (d.allocation_type == kTfLiteArenaRw) {
        data_ptr = (size_t)tensor_arena + data_ptr;
      }

      if (d.type == TfLiteType::kTfLiteInt8) {
        int8_t* data = (int8_t*)data_ptr;
        ei_printf("        %lu (%zu bytes, ptr=%p, alloc_type=%d, type=%d): ", ix, d.bytes, data, (int)d.allocation_type, (int)d.type);
        for (size_t jx = 0; jx < d.bytes; jx++) {
          ei_printf("%d ", data[jx]);
        }
      }
      else {
        float* data = (float*)data_ptr;
        ei_printf("        %lu (%zu bytes, ptr=%p, alloc_type=%d, type=%d): ", ix, d.bytes, data, (int)d.allocation_type, (int)d.type);
        for (size_t jx = 0; jx < d.bytes / 4; jx++) {
          ei_printf("%f ", data[jx]);
        }
      }
      ei_printf("\n");
    }
    ei_printf("\n");

    ei_printf("    outputs:\n");
    for (size_t ix = 0; ix < tflNodes[i].outputs->size; ix++) {
      auto d = tensorData[tflNodes[i].outputs->data[ix]];

      size_t data_ptr = (size_t)d.data;

      if (d.allocation_type == kTfLiteArenaRw) {
        data_ptr = (size_t)tensor_arena + data_ptr;
      }

      if (d.type == TfLiteType::kTfLiteInt8) {
        int8_t* data = (int8_t*)data_ptr;
        ei_printf("        %lu (%zu bytes, ptr=%p, alloc_type=%d, type=%d): ", ix, d.bytes, data, (int)d.allocation_type, (int)d.type);
        for (size_t jx = 0; jx < d.bytes; jx++) {
          ei_printf("%d ", data[jx]);
        }
      }
      else {
        float* data = (float*)data_ptr;
        ei_printf("        %lu (%zu bytes, ptr=%p, alloc_type=%d, type=%d): ", ix, d.bytes, data, (int)d.allocation_type, (int)d.type);
        for (size_t jx = 0; jx < d.bytes / 4; jx++) {
          ei_printf("%f ", data[jx]);
        }
      }
      ei_printf("\n");
    }
    ei_printf("\n");
#endif // EI_CLASSIFIER_PRINT_STATE

    if (status != kTfLiteOk) {
      return status;
    }
  }
  return kTfLiteOk;
}

TfLiteStatus tflite_learn_1015229_5_reset( void (*free_fnc)(void* ptr) ) {
#ifdef EI_CLASSIFIER_ALLOCATION_HEAP
  free_fnc(tensor_arena);
#endif

  // scratch buffers are allocated within the arena, so just reset the counter so memory can be reused
  scratch_buffers_ix = 0;

  // overflow buffers are on the heap, so free them first
  for (size_t ix = 0; ix < overflow_buffers_ix; ix++) {
    ei_free(overflow_buffers[ix]);
  }
  overflow_buffers_ix = 0;
  return kTfLiteOk;
}
